Language model created by QuickLM on Sat Jun 10 00:50:19 EDT 2017
Copyright (c) 1996-2010 Carnegie Mellon University and Alexander I. Rudnicky

The model is in standard ARPA format, designed by Doug Paul while he was at MITRE.

The code that was used to produce this language model is available in Open Source.
Please visit http://www.speech.cs.cmu.edu/tools/ for more information

The (fixed) discount mass is 0.5. The backoffs are computed using the ratio method.
This model based on a corpus of 9 sentences and 18 words

\data\
ngram 1=18
ngram 2=25
ngram 3=21

\1-grams:
-0.9379 </s> -0.3010
-0.9379 <s> -0.2478
-1.8921 ALARM -0.2478
-1.8921 BROWSER -0.2478
-1.5911 CHECK -0.2897
-1.8921 E-MAIL -0.2478
-1.8921 HISTORY -0.2478
-1.5911 LIGHT -0.2478
-1.8921 MUSIC -0.2954
-1.8921 NEW -0.2954
-1.8921 OFF -0.2897
-1.8921 ON -0.2897
-1.5911 OPEN -0.2897
-1.8921 PLAYER -0.2478
-1.5911 SET -0.2897
-1.8921 TIMER -0.2478
-1.5911 TURN -0.2897
-1.8921 WEATHER -0.2478

\2-grams:
-0.9542 <s> CHECK 0.0000
-1.2553 <s> NEW 0.0000
-0.9542 <s> OPEN 0.0000
-0.9542 <s> SET 0.0000
-0.9542 <s> TURN 0.0000
-0.3010 ALARM </s> -0.3010
-0.3010 BROWSER </s> -0.3010
-0.6021 CHECK HISTORY 0.0000
-0.6021 CHECK WEATHER 0.0000
-0.3010 E-MAIL </s> -0.3010
-0.3010 HISTORY </s> -0.3010
-0.3010 LIGHT </s> -0.3010
-0.3010 MUSIC PLAYER 0.0000
-0.3010 NEW E-MAIL 0.0000
-0.3010 OFF LIGHT 0.0000
-0.3010 ON LIGHT 0.0000
-0.6021 OPEN BROWSER 0.0000
-0.6021 OPEN MUSIC 0.0000
-0.3010 PLAYER </s> -0.3010
-0.6021 SET ALARM 0.0000
-0.6021 SET TIMER 0.0000
-0.3010 TIMER </s> -0.3010
-0.6021 TURN OFF 0.0000
-0.6021 TURN ON 0.0000
-0.3010 WEATHER </s> -0.3010

\3-grams:
-0.6021 <s> CHECK HISTORY
-0.6021 <s> CHECK WEATHER
-0.3010 <s> NEW E-MAIL
-0.6021 <s> OPEN BROWSER
-0.6021 <s> OPEN MUSIC
-0.6021 <s> SET ALARM
-0.6021 <s> SET TIMER
-0.6021 <s> TURN OFF
-0.6021 <s> TURN ON
-0.3010 CHECK HISTORY </s>
-0.3010 CHECK WEATHER </s>
-0.3010 MUSIC PLAYER </s>
-0.3010 NEW E-MAIL </s>
-0.3010 OFF LIGHT </s>
-0.3010 ON LIGHT </s>
-0.3010 OPEN BROWSER </s>
-0.3010 OPEN MUSIC PLAYER
-0.3010 SET ALARM </s>
-0.3010 SET TIMER </s>
-0.3010 TURN OFF LIGHT
-0.3010 TURN ON LIGHT

\end\
