Language model created by QuickLM on Sat Jun 10 21:06:51 EDT 2017
Copyright (c) 1996-2010 Carnegie Mellon University and Alexander I. Rudnicky

The model is in standard ARPA format, designed by Doug Paul while he was at MITRE.

The code that was used to produce this language model is available in Open Source.
Please visit http://www.speech.cs.cmu.edu/tools/ for more information

The (fixed) discount mass is 0.5. The backoffs are computed using the ratio method.
This model based on a corpus of 41 sentences and 46 words

\data\
ngram 1=46
ngram 2=85
ngram 3=51

\1-grams:
-0.8186 </s> -0.3010
-0.8186 <s> -0.2238
-2.4314 A -0.2295
-2.4314 ALARM -0.2295
-2.4314 AN -0.2295
-2.4314 AND -0.2295
-2.1303 CHECK -0.2978
-2.4314 CONNECTED -0.2295
-2.4314 E-MAIL -0.2295
-2.4314 EIGHT -0.2295
-2.4314 EIGHTEEN -0.2295
-2.4314 ELEVEN -0.2295
-2.4314 EVENTS -0.2295
-2.4314 FIFTEEN -0.2295
-2.4314 FIFTY -0.2295
-2.4314 FIVE -0.2295
-2.4314 FORTY -0.2295
-2.4314 FOUR -0.2295
-2.4314 FOURTEEN -0.2295
-2.4314 HUNDRED -0.2295
-1.9542 MUSIC -0.2913
-2.4314 NINE -0.2295
-2.4314 NINETEEN -0.2295
-2.4314 NINETY -0.2295
-2.1303 ONE -0.2295
-1.9542 PLAY -0.2962
-2.4314 SEND -0.2994
-2.1303 SET -0.2978
-2.4314 SEVEN -0.2295
-2.4314 SEVENTEEN -0.2295
-2.4314 SEVENTY -0.2295
-2.4314 SIX -0.2295
-2.4314 SIXTEEN -0.2295
-2.4314 SIXTY -0.2295
-2.4314 TEN -0.2295
-2.4314 THIRTEEN -0.2295
-2.4314 THIRTY -0.2295
-2.4314 THOUSAND -0.2295
-2.1303 THREE -0.2295
-2.4314 TIMER -0.2295
-2.4314 TWELVE -0.2295
-2.4314 TWENTY -0.2295
-2.1303 TWO -0.2295
-2.4314 WEATHER -0.2295
-2.4314 WHO'S -0.2994
-2.4314 ZERO -0.2295

\2-grams:
-1.9138 <s> A 0.0000
-1.9138 <s> AN 0.0000
-1.9138 <s> AND 0.0000
-1.6128 <s> CHECK 0.0000
-1.9138 <s> EIGHT 0.0000
-1.9138 <s> EIGHTEEN 0.0000
-1.9138 <s> ELEVEN 0.0000
-1.9138 <s> FIFTEEN 0.0000
-1.9138 <s> FIFTY 0.0000
-1.9138 <s> FIVE 0.0000
-1.9138 <s> FORTY 0.0000
-1.9138 <s> FOUR 0.0000
-1.9138 <s> FOURTEEN 0.0000
-1.9138 <s> HUNDRED 0.0000
-1.9138 <s> NINE 0.0000
-1.9138 <s> NINETEEN 0.0000
-1.9138 <s> NINETY 0.0000
-1.9138 <s> ONE 0.0000
-1.4367 <s> PLAY 0.0000
-1.9138 <s> SEND 0.0000
-1.6128 <s> SET 0.0000
-1.9138 <s> SEVEN 0.0000
-1.9138 <s> SEVENTEEN 0.0000
-1.9138 <s> SEVENTY 0.0000
-1.9138 <s> SIX 0.0000
-1.9138 <s> SIXTEEN 0.0000
-1.9138 <s> SIXTY 0.0000
-1.9138 <s> TEN 0.0000
-1.9138 <s> THIRTEEN 0.0000
-1.9138 <s> THIRTY 0.0000
-1.9138 <s> THOUSAND 0.0000
-1.9138 <s> THREE 0.0000
-1.9138 <s> TWELVE 0.0000
-1.9138 <s> TWENTY 0.0000
-1.9138 <s> TWO 0.0000
-1.9138 <s> WHO'S 0.0000
-1.9138 <s> ZERO 0.0000
-0.3010 A </s> -0.3010
-0.3010 ALARM </s> -0.3010
-0.3010 AN </s> -0.3010
-0.3010 AND </s> -0.3010
-0.6021 CHECK EVENTS 0.0000
-0.6021 CHECK WEATHER 0.0000
-0.3010 CONNECTED </s> -0.3010
-0.3010 E-MAIL </s> -0.3010
-0.3010 EIGHT </s> -0.3010
-0.3010 EIGHTEEN </s> -0.3010
-0.3010 ELEVEN </s> -0.3010
-0.3010 EVENTS </s> -0.3010
-0.3010 FIFTEEN </s> -0.3010
-0.3010 FIFTY </s> -0.3010
-0.3010 FIVE </s> -0.3010
-0.3010 FORTY </s> -0.3010
-0.3010 FOUR </s> -0.3010
-0.3010 FOURTEEN </s> -0.3010
-0.3010 HUNDRED </s> -0.3010
-0.7782 MUSIC ONE 0.0000
-0.7782 MUSIC THREE 0.0000
-0.7782 MUSIC TWO 0.0000
-0.3010 NINE </s> -0.3010
-0.3010 NINETEEN </s> -0.3010
-0.3010 NINETY </s> -0.3010
-0.3010 ONE </s> -0.3010
-0.3010 PLAY MUSIC 0.0000
-0.3010 SEND E-MAIL 0.0000
-0.6021 SET ALARM 0.0000
-0.6021 SET TIMER 0.0000
-0.3010 SEVEN </s> -0.3010
-0.3010 SEVENTEEN </s> -0.3010
-0.3010 SEVENTY </s> -0.3010
-0.3010 SIX </s> -0.3010
-0.3010 SIXTEEN </s> -0.3010
-0.3010 SIXTY </s> -0.3010
-0.3010 TEN </s> -0.3010
-0.3010 THIRTEEN </s> -0.3010
-0.3010 THIRTY </s> -0.3010
-0.3010 THOUSAND </s> -0.3010
-0.3010 THREE </s> -0.3010
-0.3010 TIMER </s> -0.3010
-0.3010 TWELVE </s> -0.3010
-0.3010 TWENTY </s> -0.3010
-0.3010 TWO </s> -0.3010
-0.3010 WEATHER </s> -0.3010
-0.3010 WHO'S CONNECTED 0.0000
-0.3010 ZERO </s> -0.3010

\3-grams:
-0.3010 <s> A </s>
-0.3010 <s> AN </s>
-0.3010 <s> AND </s>
-0.6021 <s> CHECK EVENTS
-0.6021 <s> CHECK WEATHER
-0.3010 <s> EIGHT </s>
-0.3010 <s> EIGHTEEN </s>
-0.3010 <s> ELEVEN </s>
-0.3010 <s> FIFTEEN </s>
-0.3010 <s> FIFTY </s>
-0.3010 <s> FIVE </s>
-0.3010 <s> FORTY </s>
-0.3010 <s> FOUR </s>
-0.3010 <s> FOURTEEN </s>
-0.3010 <s> HUNDRED </s>
-0.3010 <s> NINE </s>
-0.3010 <s> NINETEEN </s>
-0.3010 <s> NINETY </s>
-0.3010 <s> ONE </s>
-0.3010 <s> PLAY MUSIC
-0.3010 <s> SEND E-MAIL
-0.6021 <s> SET ALARM
-0.6021 <s> SET TIMER
-0.3010 <s> SEVEN </s>
-0.3010 <s> SEVENTEEN </s>
-0.3010 <s> SEVENTY </s>
-0.3010 <s> SIX </s>
-0.3010 <s> SIXTEEN </s>
-0.3010 <s> SIXTY </s>
-0.3010 <s> TEN </s>
-0.3010 <s> THIRTEEN </s>
-0.3010 <s> THIRTY </s>
-0.3010 <s> THOUSAND </s>
-0.3010 <s> THREE </s>
-0.3010 <s> TWELVE </s>
-0.3010 <s> TWENTY </s>
-0.3010 <s> TWO </s>
-0.3010 <s> WHO'S CONNECTED
-0.3010 <s> ZERO </s>
-0.3010 CHECK EVENTS </s>
-0.3010 CHECK WEATHER </s>
-0.3010 MUSIC ONE </s>
-0.3010 MUSIC THREE </s>
-0.3010 MUSIC TWO </s>
-0.7782 PLAY MUSIC ONE
-0.7782 PLAY MUSIC THREE
-0.7782 PLAY MUSIC TWO
-0.3010 SEND E-MAIL </s>
-0.3010 SET ALARM </s>
-0.3010 SET TIMER </s>
-0.3010 WHO'S CONNECTED </s>

\end\