Language model created by QuickLM on Sat Jun 10 01:06:29 EDT 2017
Copyright (c) 1996-2010 Carnegie Mellon University and Alexander I. Rudnicky

The model is in standard ARPA format, designed by Doug Paul while he was at MITRE.

The code that was used to produce this language model is available in Open Source.
Please visit http://www.speech.cs.cmu.edu/tools/ for more information

The (fixed) discount mass is 0.5. The backoffs are computed using the ratio method.
This model based on a corpus of 15 sentences and 36 words

\data\
ngram 1=36
ngram 2=50
ngram 3=41

\1-grams:
-0.9762 </s> -0.3010
-0.9762 <s> -0.2525
-2.1523 A -0.2980
-2.1523 ALARM -0.2525
-2.1523 AN -0.2980
-2.1523 BALLS -0.2525
-2.1523 BASTARD -0.2525
-2.1523 BROWSER -0.2525
-1.6752 CHECK -0.2886
-2.1523 E-MAIL -0.2525
-2.1523 EMAIL -0.2525
-2.1523 EMAILS -0.2525
-2.1523 FUCKING -0.2980
-2.1523 HISTORY -0.2525
-2.1523 I'M -0.2980
-1.8513 LIGHT -0.2525
-2.1523 MUSIC -0.2980
-1.8513 MY -0.2949
-2.1523 NAME -0.2525
-2.1523 NEED -0.2980
-2.1523 NEW -0.2980
-2.1523 OFF -0.2949
-2.1523 ON -0.2949
-1.8513 OPEN -0.2949
-2.1523 PLAYER -0.2525
-2.1523 SEND -0.2980
-1.8513 SET -0.2949
-2.1523 TALKING -0.2980
-2.1523 TEAM -0.2980
-2.1523 TIMER -0.2525
-2.1523 TO -0.2980
-2.1523 TOUCH -0.2949
-1.8513 TURN -0.2949
-2.1523 WE -0.2980
-2.1523 WEATHER -0.2525
-2.1523 YOU -0.2525

\2-grams:
-1.0000 <s> CHECK 0.0000
-1.4771 <s> FUCKING 0.0000
-1.4771 <s> I'M 0.0000
-1.4771 <s> NEW 0.0000
-1.1761 <s> OPEN 0.0000
-1.4771 <s> SEND 0.0000
-1.1761 <s> SET 0.0000
-1.4771 <s> TOUCH 0.0000
-1.1761 <s> TURN 0.0000
-1.4771 <s> WE 0.0000
-0.3010 A TEAM 0.0000
-0.3010 ALARM </s> -0.3010
-0.3010 AN EMAIL 0.0000
-0.3010 BALLS </s> -0.3010
-0.3010 BASTARD </s> -0.3010
-0.3010 BROWSER </s> -0.3010
-0.7782 CHECK HISTORY 0.0000
-0.7782 CHECK MY -0.1761
-0.7782 CHECK WEATHER 0.0000
-0.3010 E-MAIL </s> -0.3010
-0.3010 EMAIL </s> -0.3010
-0.3010 EMAILS </s> -0.3010
-0.3010 FUCKING BASTARD 0.0000
-0.3010 HISTORY </s> -0.3010
-0.3010 I'M TALKING 0.0000
-0.3010 LIGHT </s> -0.3010
-0.3010 MUSIC PLAYER 0.0000
-0.6021 MY BALLS 0.0000
-0.6021 MY EMAILS 0.0000
-0.3010 NAME </s> -0.3010
-0.3010 NEED A 0.0000
-0.3010 NEW E-MAIL 0.0000
-0.3010 OFF LIGHT 0.0000
-0.3010 ON LIGHT 0.0000
-0.6021 OPEN BROWSER 0.0000
-0.6021 OPEN MUSIC 0.0000
-0.3010 PLAYER </s> -0.3010
-0.3010 SEND AN 0.0000
-0.6021 SET ALARM 0.0000
-0.6021 SET TIMER 0.0000
-0.3010 TALKING TO 0.0000
-0.3010 TEAM NAME 0.0000
-0.3010 TIMER </s> -0.3010
-0.3010 TO YOU 0.0000
-0.3010 TOUCH MY -0.1761
-0.6021 TURN OFF 0.0000
-0.6021 TURN ON 0.0000
-0.3010 WE NEED 0.0000
-0.3010 WEATHER </s> -0.3010
-0.3010 YOU </s> -0.3010

\3-grams:
-0.7782 <s> CHECK HISTORY
-0.7782 <s> CHECK MY
-0.7782 <s> CHECK WEATHER
-0.3010 <s> FUCKING BASTARD
-0.3010 <s> I'M TALKING
-0.3010 <s> NEW E-MAIL
-0.6021 <s> OPEN BROWSER
-0.6021 <s> OPEN MUSIC
-0.3010 <s> SEND AN
-0.6021 <s> SET ALARM
-0.6021 <s> SET TIMER
-0.3010 <s> TOUCH MY
-0.6021 <s> TURN OFF
-0.6021 <s> TURN ON
-0.3010 <s> WE NEED
-0.3010 A TEAM NAME
-0.3010 AN EMAIL </s>
-0.3010 CHECK HISTORY </s>
-0.3010 CHECK MY EMAILS
-0.3010 CHECK WEATHER </s>
-0.3010 FUCKING BASTARD </s>
-0.3010 I'M TALKING TO
-0.3010 MUSIC PLAYER </s>
-0.3010 MY BALLS </s>
-0.3010 MY EMAILS </s>
-0.3010 NEED A TEAM
-0.3010 NEW E-MAIL </s>
-0.3010 OFF LIGHT </s>
-0.3010 ON LIGHT </s>
-0.3010 OPEN BROWSER </s>
-0.3010 OPEN MUSIC PLAYER
-0.3010 SEND AN EMAIL
-0.3010 SET ALARM </s>
-0.3010 SET TIMER </s>
-0.3010 TALKING TO YOU
-0.3010 TEAM NAME </s>
-0.3010 TO YOU </s>
-0.3010 TOUCH MY BALLS
-0.3010 TURN OFF LIGHT
-0.3010 TURN ON LIGHT
-0.3010 WE NEED A

\end\
